
{
    "threshold": 0.2,
    "layer1": {
        "weight": [
            [
                -0.21124001,
                -0.36392027,
                -0.34845185,
                -0.37000424,
                -0.40181777,
                -0.3770347,
                -0.3253938,
                -0.22309287,
                -0.28929946,
                -0.26342314
            ],
            [
                -0.583312,
                -0.8272358,
                -0.73401964,
                -0.85286987,
                -0.780248,
                -0.7634279,
                -0.66163844,
                -0.54482824,
                -0.6985208,
                -0.5588949
            ],
            [
                -0.78783613,
                -1.3771371,
                0.12928957,
                -0.16780536,
                0.8605149,
                0.95114887,
                0.5039054,
                -0.08823568,
                -1.662983,
                0.8668465
            ],
            [
                1.1496216,
                -1.0054373,
                0.8328651,
                -1.5697268,
                0.100233085,
                -1.1655293,
                -0.1979211,
                0.8301627,
                -1.0756638,
                2.32811
            ]
        ],
        "bias": [
            -0.38732827,
            -0.76746184,
            -0.4427626,
            -0.27802643
        ],
        "type": "FC"
    },
    "layers": [
        "layer1",
        "layer2",
        "layer3"
    ],
    "layer3": {
        "weight": [
            [
                0.42176542,
                0.13623291,
                -0.6266044,
                1.1756353
            ],
            [
                0.5797602,
                0.2216738,
                -0.84339,
                0.024580404
            ],
            [
                0.539057,
                0.24809693,
                1.1728383,
                1.0676938
            ],
            [
                0.636595,
                0.25022942,
                1.0919245,
                -1.1399051
            ],
            [
                0.6308419,
                0.29083586,
                2.6367884,
                -0.07618241
            ],
            [
                0.5679461,
                0.2413914,
                1.2630413,
                -0.9569268
            ],
            [
                0.46775052,
                0.16820502,
                0.94639003,
                0.026092576
            ],
            [
                0.41235152,
                0.18547784,
                0.64548045,
                1.0829302
            ],
            [
                0.4435071,
                0.16648906,
                -1.3497113,
                -0.0532538
            ],
            [
                0.48473707,
                0.22712567,
                2.0290089,
                2.1443958
            ]
        ],
        "bias": [
            1.5306553,
            2.8409884,
            1.7433257,
            3.2488961,
            2.37055,
            2.8191965,
            2.0531595,
            1.2692162,
            2.3498063,
            0.8024743
        ],
        "type": "FC"
    },
    "layer2": {
        "type": "SIGMOID"
    }
}